<?xml version="1.0"?>
<opencv_storage>
<stage2>
  <maxWeakCount>5</maxWeakCount>
  <stageThreshold>-3.0827888846397400e-01</stageThreshold>
  <weakClassifiers>
    <_>
      <internalNodes>
        0 -1 12099 -2.1226009726524353e-01</internalNodes>
      <leafValues>
        7.9710143804550171e-01 -5.2201259136199951e-01</leafValues></_>
    <_>
      <internalNodes>
        0 -1 40756 -2.7426402084529400e-04</internalNodes>
      <leafValues>
        -8.2916021347045898e-01 3.1026512384414673e-01</leafValues></_>
    <_>
      <internalNodes>
        0 -1 293587 -3.7017642171122134e-04</internalNodes>
      <leafValues>
        -7.9675662517547607e-01 2.7697804570198059e-01</leafValues></_>
    <_>
      <internalNodes>
        0 -1 357127 6.0175638645887375e-04</internalNodes>
      <leafValues>
        2.6271539926528931e-01 -9.8425126075744629e-01</leafValues></_>
    <_>
      <internalNodes>
        0 -1 362822 4.1275918192695826e-05</internalNodes>
      <leafValues>
        5.0320047140121460e-01 -6.1412888765335083e-01</leafValues></_></weakClassifiers></stage2>
</opencv_storage>
