<?xml version="1.0"?>
<opencv_storage>
<stage0>
  <maxWeakCount>6</maxWeakCount>
  <stageThreshold>-9.1804236173629761e-01</stageThreshold>
  <weakClassifiers>
    <_>
      <internalNodes>
        0 -1 12151 -1.8478506803512573e-01</internalNodes>
      <leafValues>
        8.6666667461395264e-01 -6.0784316062927246e-01</leafValues></_>
    <_>
      <internalNodes>
        0 -1 5171 3.4272510558366776e-02</internalNodes>
      <leafValues>
        -4.5532763004302979e-01 7.5332933664321899e-01</leafValues></_>
    <_>
      <internalNodes>
        0 -1 157499 -3.6462910473346710e-02</internalNodes>
      <leafValues>
        9.6208167076110840e-01 -2.9729276895523071e-01</leafValues></_>
    <_>
      <internalNodes>
        0 -1 1573 -2.4550297856330872e-01</internalNodes>
      <leafValues>
        9.7062116861343384e-01 -3.5675880312919617e-01</leafValues></_>
    <_>
      <internalNodes>
        0 -1 43377 -2.7960406150668859e-03</internalNodes>
      <leafValues>
        -8.9404141902923584e-01 4.6617481112480164e-01</leafValues></_>
    <_>
      <internalNodes>
        0 -1 112500 -1.6714810626581311e-03</internalNodes>
      <leafValues>
        -9.8149168491363525e-01 3.3300513029098511e-01</leafValues></_></weakClassifiers></stage0>
</opencv_storage>
