<?xml version="1.0"?>
<opencv_storage>
<stage1>
  <maxWeakCount>5</maxWeakCount>
  <stageThreshold>-2.8451973199844360e-01</stageThreshold>
  <weakClassifiers>
    <_>
      <internalNodes>
        0 -1 12125 -1.8273074924945831e-01</internalNodes>
      <leafValues>
        9.1666668653488159e-01 -6.0256409645080566e-01</leafValues></_>
    <_>
      <internalNodes>
        0 -1 173093 -3.5503461956977844e-02</internalNodes>
      <leafValues>
        9.2878526449203491e-01 -3.0294150114059448e-01</leafValues></_>
    <_>
      <internalNodes>
        0 -1 165385 -5.0933804595842957e-04</internalNodes>
      <leafValues>
        -1. 3.6738097667694092e-01</leafValues></_>
    <_>
      <internalNodes>
        0 -1 246018 -8.3304889500141144e-02</internalNodes>
      <leafValues>
        1. -3.8361784815788269e-01</leafValues></_>
    <_>
      <internalNodes>
        0 -1 16090 2.6755328290164471e-03</internalNodes>
      <leafValues>
        -5.9067881107330322e-01 6.3722276687622070e-01</leafValues></_></weakClassifiers></stage1>
</opencv_storage>
