<?xml version="1.0"?>
<opencv_storage>
<stage14>
  <maxWeakCount>7</maxWeakCount>
  <stageThreshold>-5.5313199758529663e-01</stageThreshold>
  <weakClassifiers>
    <_>
      <internalNodes>
        0 -1 315402 -1.0874703526496887e-02</internalNodes>
      <leafValues>
        3.3333334326744080e-01 -5.1219511032104492e-01</leafValues></_>
    <_>
      <internalNodes>
        0 -1 230444 -7.3892436921596527e-04</internalNodes>
      <leafValues>
        5.3644150495529175e-01 -3.4881588816642761e-01</leafValues></_>
    <_>
      <internalNodes>
        0 -1 131678 -5.6165517307817936e-03</internalNodes>
      <leafValues>
        7.8015339374542236e-01 -2.0950058102607727e-01</leafValues></_>
    <_>
      <internalNodes>
        0 -1 349528 -1.5180205809883773e-04</internalNodes>
      <leafValues>
        4.8510304093360901e-01 -4.2387121915817261e-01</leafValues></_>
    <_>
      <internalNodes>
        0 -1 80498 5.4059019312262535e-03</internalNodes>
      <leafValues>
        -2.2645385563373566e-01 7.3910963535308838e-01</leafValues></_>
    <_>
      <internalNodes>
        0 -1 223853 4.5309157576411963e-04</internalNodes>
      <leafValues>
        -3.1854996085166931e-01 6.0142511129379272e-01</leafValues></_>
    <_>
      <internalNodes>
        0 -1 223396 8.2255050074309111e-04</internalNodes>
      <leafValues>
        -2.4453119933605194e-01 6.8746447563171387e-01</leafValues></_></weakClassifiers></stage14>
</opencv_storage>
